{
  "model": "FetalyzeAI ReserveNet LR-Portable v1",
  "feature_cols": [
    "baseline_fhr",
    "mean_fhr",
    "std_fhr",
    "stv",
    "ltv",
    "stv_norm",
    "ltv_norm",
    "tachycardia_frac",
    "bradycardia_frac",
    "n_decels",
    "decels_per_30min",
    "mean_decel_depth",
    "max_decel_depth",
    "mean_decel_dur_s",
    "n_accels",
    "accels_per_30min",
    "n_contractions",
    "contractions_per_10min",
    "decel_burden",
    "csr_frac",
    "fetal_reserve_score",
    "duration_min",
    "signal_quality",
    "missing_fhr"
  ],
  "classes": [
    0,
    1,
    2
  ],
  "class_names": [
    "Normal",
    "Watch",
    "High Risk"
  ],
  "temperature_T": 0.661185,
  "scaler": {
    "center": [
      136.75,
      134.427681,
      16.700082,
      0.714991,
      34.830227,
      0.071499,
      1.393209,
      0.027505,
      0.083494,
      8.0,
      3.230769,
      47.191667,
      65.25,
      28.438596,
      3.0,
      1.30903,
      8.0,
      1.071795,
      11530.0625,
      0.5,
      16.16775,
      70.0,
      0.81342,
      0.18658
    ],
    "scale": [
      16.4375,
      15.62519,
      6.566444,
      0.251094,
      14.430988,
      0.025109,
      0.57724,
      0.081478,
      0.119592,
      9.0,
      3.471429,
      16.857639,
      25.1875,
      12.753671,
      6.0,
      2.217984,
      10.0,
      1.320726,
      18328.65625,
      0.366667,
      15.0,
      10.0,
      0.18662,
      0.18662
    ]
  },
  "imputer": {
    "medians": [
      136.75,
      134.427681,
      16.700082,
      0.714991,
      34.830227,
      0.071499,
      1.393209,
      0.027505,
      0.083494,
      8.0,
      3.230769,
      47.191667,
      65.25,
      28.438596,
      3.0,
      1.30903,
      8.0,
      1.071795,
      11530.0625,
      0.5,
      16.16775,
      70.0,
      0.81342,
      0.18658
    ]
  },
  "experts": {
    "baseline_expert": {
      "features": [
        "baseline_fhr",
        "mean_fhr",
        "std_fhr",
        "tachycardia_frac",
        "bradycardia_frac",
        "missing_fhr",
        "signal_quality"
      ],
      "col_idx": [
        0,
        1,
        2,
        7,
        8,
        23,
        22
      ],
      "coef": [
        [
          -0.181041,
          -0.082271,
          -0.789934,
          0.068345,
          -0.107272,
          -0.236265,
          0.236265
        ],
        [
          -0.138001,
          -0.108864,
          0.072852,
          -0.014801,
          -0.110628,
          -0.050674,
          0.050674
        ],
        [
          0.319042,
          0.191136,
          0.717083,
          -0.053544,
          0.2179,
          0.286939,
          -0.286939
        ]
      ],
      "intercept": [
        0.28593,
        0.209567,
        -0.495497
      ],
      "classes": [
        0,
        1,
        2
      ]
    },
    "variability_expert": {
      "features": [
        "stv",
        "ltv",
        "stv_norm",
        "ltv_norm"
      ],
      "col_idx": [
        3,
        4,
        5,
        6
      ],
      "coef": [
        [
          0.03693,
          -0.172876,
          0.03693,
          -0.172876
        ],
        [
          -0.1204,
          0.179416,
          -0.1204,
          0.179416
        ],
        [
          0.08347,
          -0.00654,
          0.08347,
          -0.00654
        ]
      ],
      "intercept": [
        0.035285,
        -0.006455,
        -0.02883
      ],
      "classes": [
        0,
        1,
        2
      ]
    },
    "event_expert": {
      "features": [
        "n_decels",
        "decels_per_30min",
        "mean_decel_depth",
        "max_decel_depth",
        "mean_decel_dur_s",
        "n_accels",
        "accels_per_30min",
        "n_contractions",
        "contractions_per_10min",
        "decel_burden",
        "csr_frac",
        "duration_min"
      ],
      "col_idx": [
        9,
        10,
        11,
        12,
        13,
        14,
        15,
        16,
        17,
        18,
        19,
        21
      ],
      "coef": [
        [
          -0.41188,
          0.23683,
          0.024165,
          -0.334246,
          -0.307617,
          -0.218368,
          0.088346,
          -0.228308,
          0.104353,
          0.107336,
          -0.217709,
          -0.384297
        ],
        [
          0.225486,
          0.282353,
          -0.069419,
          -0.19038,
          0.140975,
          -0.327542,
          0.211938,
          -0.170972,
          0.462326,
          -0.396223,
          0.001775,
          0.20507
        ],
        [
          0.186394,
          -0.519182,
          0.045254,
          0.524626,
          0.166641,
          0.54591,
          -0.300284,
          0.399281,
          -0.566679,
          0.288886,
          0.215934,
          0.179227
        ]
      ],
      "intercept": [
        0.453712,
        0.011654,
        -0.465365
      ],
      "classes": [
        0,
        1,
        2
      ]
    }
  },
  "meta_mlp": {
    "n_expert_probs": 9,
    "n_raw_features": 24,
    "n_input": 33,
    "activation": "relu",
    "layers": [
      {
        "W": [
          [
            -0.048119,
            0.01579,
            0.178638,
            -0.086083,
            0.107376,
            0.061793,
            -0.146227,
            -0.175087,
            -0.062175,
            -0.048457,
            -0.185599,
            0.120893,
            0.091085,
            0.187328,
            0.110596,
            0.208491,
            -0.131703,
            0.076846,
            0.141047,
            0.067817,
            0.090265,
            -0.060458,
            -0.131765,
            -0.083718,
            0.192131,
            -0.063379,
            0.03897,
            0.028418,
            0.001044,
            0.158377,
            -0.068305,
            0.151601,
            -0.086082
          ],
          [
            0.200315,
            -0.02535,
            0.063093,
            0.045061,
            0.13678,
            0.090315,
            0.189916,
            0.016449,
            0.144369,
            0.020501,
            0.03919,
            -0.046871,
            0.083507,
            0.054711,
            -0.02633,
            -0.170713,
            0.08068,
            0.133162,
            0.055136,
            0.018559,
            -0.211913,
            0.170424,
            0.171135,
            0.182889,
            -0.03878,
            -0.189701,
            0.154126,
            0.014297,
            -0.043382,
            -0.105373,
            0.158204,
            -0.205503,
            -0.103961
          ],
          [
            0.094302,
            -0.210453,
            -0.074989,
            -0.208243,
            -0.099736,
            -0.025371,
            -0.009102,
            -0.044396,
            -0.173593,
            -0.142918,
            -0.104027,
            -0.003079,
            0.045715,
            0.124547,
            -0.071887,
            0.071138,
            -0.132099,
            0.178853,
            -0.078422,
            -0.192858,
            0.056749,
            -0.200682,
            0.07162,
            0.10377,
            -0.183793,
            -0.037291,
            0.207872,
            -0.148923,
            0.018379,
            0.193074,
            -0.12904,
            0.082222,
            0.047759
          ],
          [
            0.048418,
            -0.163575,
            -0.066099,
            -0.19394,
            -0.133586,
            0.060618,
            -0.098396,
            0.213555,
            0.151636,
            -0.140281,
            -0.050117,
            0.050918,
            0.114783,
            -0.002504,
            -0.049839,
            -0.018793,
            0.010025,
            -0.112899,
            0.053526,
            0.202985,
            -0.063577,
            0.069383,
            -0.155294,
            0.134811,
            0.054162,
            -0.086956,
            -0.045105,
            0.116084,
            0.043467,
            -0.126534,
            -0.184899,
            0.208689,
            0.15205
          ],
          [
            -0.142402,
            -0.19616,
            0.103159,
            0.145013,
            0.114008,
            0.042288,
            -0.011697,
            -0.161531,
            -0.154866,
            0.161231,
            -0.08656,
            0.16689,
            -0.141575,
            -0.15933,
            0.215974,
            0.16449,
            0.094471,
            -0.037638,
            0.017275,
            0.134747,
            0.132875,
            0.205849,
            -0.025475,
            -0.206137,
            -0.163774,
            0.081919,
            0.147112,
            -0.09529,
            -0.216085,
            0.191425,
            -0.191299,
            -0.022226,
            0.187974
          ],
          [
            -0.142442,
            0.064792,
            0.177039,
            -0.054361,
            0.138298,
            0.178967,
            0.212985,
            -0.038108,
            -0.038485,
            0.189025,
            -0.057044,
            0.20298,
            0.158856,
            -0.167379,
            -0.203784,
            -0.144966,
            -0.165462,
            -0.155356,
            -0.03765,
            -0.09518,
            -0.18104,
            0.020302,
            0.044263,
            0.205487,
            -0.060865,
            0.049072,
            0.118486,
            -0.00708,
            -0.02126,
            0.219308,
            0.195888,
            -0.109388,
            -0.174812
          ],
          [
            -0.196418,
            -0.085844,
            0.161696,
            -0.166593,
            0.205866,
            -0.201798,
            -0.009002,
            0.196765,
            0.122694,
            -0.052133,
            0.099565,
            0.110322,
            0.154636,
            0.074418,
            0.15256,
            0.077464,
            0.02966,
            0.206746,
            -0.164963,
            0.201273,
            0.03242,
            0.182969,
            -0.184693,
            0.092197,
            -0.002358,
            -0.056868,
            0.029557,
            -0.098755,
            0.194366,
            0.086314,
            0.002451,
            0.083279,
            -0.143792
          ],
          [
            0.163293,
            0.008783,
            0.126002,
            0.015,
            -0.032481,
            -0.089133,
            -0.068343,
            0.162317,
            -0.145528,
            -0.104391,
            -0.093172,
            -0.030528,
            -0.198152,
            -0.025684,
            0.038805,
            0.150152,
            -0.110747,
            0.189646,
            0.171427,
            0.048546,
            -0.00437,
            -0.197663,
            0.169597,
            -0.082775,
            0.160092,
            -0.125825,
            0.192726,
            -0.152329,
            0.004365,
            0.213215,
            -0.033723,
            0.135781,
            0.192373
          ],
          [
            0.048719,
            0.180066,
            0.063575,
            0.121248,
            -0.050405,
            0.197962,
            0.063263,
            0.139771,
            -0.114846,
            0.067459,
            0.034375,
            -0.039714,
            0.135428,
            -0.134445,
            -0.031576,
            0.186481,
            0.204471,
            0.011477,
            -0.02749,
            0.029709,
            0.055867,
            -0.04099,
            0.126403,
            0.143202,
            -0.000708,
            0.205504,
            -0.134101,
            0.050214,
            0.071144,
            0.035821,
            0.136958,
            0.014139,
            0.107912
          ],
          [
            0.095635,
            -0.10221,
            -0.173622,
            -0.116677,
            0.125133,
            0.17425,
            -0.106122,
            -0.098495,
            0.101498,
            -0.034736,
            -0.005374,
            0.097915,
            -0.165535,
            -0.009241,
            0.09169,
            0.07342,
            -0.001485,
            0.14469,
            -0.133584,
            0.106185,
            -0.193036,
            -0.109146,
            0.007189,
            -0.088995,
            0.092357,
            -0.025343,
            -0.174049,
            -0.190595,
            -0.086887,
            -0.09792,
            0.150378,
            0.200346,
            0.165995
          ],
          [
            -0.201732,
            -0.033315,
            -0.14047,
            0.058326,
            -0.063394,
            -0.013822,
            -0.177615,
            -0.136818,
            0.100371,
            -0.209365,
            0.065172,
            -0.107227,
            -0.066026,
            -0.183155,
            -0.00066,
            0.003577,
            0.135382,
            0.014443,
            -0.051392,
            0.140096,
            0.040376,
            0.104921,
            0.206351,
            0.162554,
            0.216304,
            0.081052,
            0.155801,
            0.112913,
            0.12357,
            -0.026175,
            -0.070335,
            -0.19226,
            -0.129189
          ],
          [
            0.208099,
            0.115354,
            0.170757,
            -0.173613,
            0.189584,
            0.055532,
            -0.154417,
            0.077162,
            0.062677,
            -0.148459,
            0.188477,
            -0.173881,
            0.099425,
            0.029739,
            0.15546,
            0.045213,
            0.023253,
            0.052843,
            -0.042896,
            0.061686,
            0.021499,
            0.204938,
            -0.030885,
            -0.172546,
            -0.164528,
            -0.156885,
            -0.027706,
            -0.080907,
            0.111703,
            0.043097,
            0.083567,
            0.003122,
            0.036701
          ],
          [
            0.137691,
            -0.122573,
            0.040597,
            -0.198968,
            0.148912,
            -0.10156,
            -0.166066,
            0.17958,
            0.078061,
            0.092459,
            0.099484,
            -0.056996,
            -0.140635,
            -0.094373,
            0.178493,
            0.164289,
            -0.195192,
            -0.172102,
            0.147074,
            -0.154553,
            0.023912,
            -0.099227,
            0.203405,
            0.092579,
            -0.091898,
            -0.011858,
            0.144087,
            -0.213525,
            0.014683,
            -0.189979,
            0.111205,
            0.091145,
            0.089452
          ],
          [
            -0.129593,
            -0.18812,
            -0.217137,
            0.007919,
            -0.03618,
            -0.140181,
            -0.15569,
            0.01882,
            0.012939,
            0.074256,
            -0.117197,
            -0.097105,
            0.131385,
            0.122747,
            -0.039525,
            0.024861,
            0.061448,
            0.104371,
            0.095185,
            -0.075346,
            0.039561,
            0.062894,
            0.067839,
            0.012324,
            -0.050707,
            -0.204988,
            0.166592,
            -0.00061,
            0.199758,
            0.053826,
            0.061494,
            0.151342,
            0.082671
          ],
          [
            -0.136779,
            -0.09585,
            -0.166323,
            0.018726,
            0.109669,
            -0.020306,
            -0.153217,
            0.024926,
            -0.10448,
            -0.198224,
            -0.19644,
            -0.088946,
            0.137667,
            -0.086317,
            -0.101828,
            -0.206969,
            0.200449,
            -0.166411,
            0.110543,
            0.179012,
            0.071134,
            -0.135628,
            0.052546,
            -0.168549,
            -0.028277,
            -0.000452,
            -0.191313,
            -0.201021,
            -0.155795,
            0.21302,
            -0.145354,
            -0.142241,
            -0.035628
          ],
          [
            -0.13088,
            -0.140975,
            0.073846,
            0.064432,
            0.114565,
            -0.058151,
            0.066029,
            -0.090991,
            -0.061423,
            -0.117157,
            -0.099926,
            -0.112841,
            0.008194,
            -0.015512,
            0.0448,
            0.189563,
            0.048588,
            0.142147,
            -0.210119,
            -0.116161,
            0.137015,
            0.033646,
            -0.143425,
            -0.110577,
            -0.0408,
            0.195205,
            0.161143,
            -0.093134,
            -0.212477,
            -0.13788,
            0.157326,
            0.135247,
            -0.214867
          ],
          [
            -0.090114,
            0.179601,
            -0.217481,
            0.091966,
            -0.176802,
            0.030443,
            -0.142822,
            0.11055,
            -0.142539,
            -0.11183,
            0.042874,
            -0.192006,
            -0.215583,
            -0.20728,
            0.175066,
            0.08494,
            0.13469,
            0.116489,
            -0.038752,
            -0.057511,
            -0.094446,
            -0.010343,
            0.159867,
            -0.211825,
            0.175603,
            -0.049938,
            -0.021773,
            0.084509,
            0.120777,
            0.12087,
            0.011473,
            0.017479,
            0.041019
          ],
          [
            0.004727,
            0.126959,
            -0.152135,
            0.199295,
            0.167711,
            -0.188088,
            -0.072501,
            -0.140909,
            0.170255,
            0.069406,
            -0.198234,
            -0.20231,
            -0.086381,
            -0.178613,
            -0.119322,
            0.081931,
            0.160586,
            0.095472,
            -0.002451,
            -0.023737,
            0.134472,
            0.19822,
            -0.027519,
            -0.014839,
            0.091351,
            -0.19389,
            0.009292,
            -0.184973,
            0.136724,
            0.170239,
            -0.09894,
            -0.050505,
            -0.100604
          ],
          [
            -0.035064,
            0.05177,
            0.015125,
            0.001268,
            -0.00354,
            0.198855,
            0.165338,
            -0.08175,
            0.030223,
            -0.202762,
            0.002781,
            0.215674,
            0.045731,
            -0.041068,
            0.048336,
            -0.117325,
            -0.112335,
            -0.202371,
            -0.201669,
            -0.020448,
            0.000623,
            0.052098,
            -0.139968,
            -0.083142,
            0.05046,
            -0.196418,
            0.060501,
            0.151288,
            -0.157944,
            0.185723,
            -0.037425,
            -0.160098,
            -0.019916
          ],
          [
            -0.095953,
            0.1543,
            0.076892,
            -0.082266,
            0.134892,
            0.203808,
            -0.017128,
            -0.038086,
            -0.048614,
            -0.164918,
            0.047173,
            -0.025475,
            0.202939,
            -0.005453,
            0.052163,
            0.071679,
            -0.129407,
            -0.089914,
            -0.097882,
            0.054263,
            -0.176734,
            -0.059164,
            -0.2044,
            0.036424,
            -0.088199,
            -0.048354,
            0.182443,
            -0.208214,
            -0.096442,
            0.192695,
            -0.204969,
            0.152999,
            0.201739
          ],
          [
            0.042435,
            0.125175,
            0.059834,
            0.12153,
            -0.083409,
            0.079671,
            0.066462,
            -0.002517,
            -0.022117,
            0.131579,
            -0.070727,
            -0.044099,
            0.050977,
            0.048563,
            0.094669,
            -0.040353,
            0.043,
            -0.105446,
            0.116803,
            0.194326,
            -0.184971,
            -0.160665,
            0.03116,
            -0.092152,
            0.135038,
            -0.140909,
            -0.20173,
            -0.10857,
            -0.203503,
            0.003518,
            -0.165518,
            -0.149004,
            -0.042324
          ],
          [
            -0.161314,
            -0.141024,
            -0.12392,
            -0.104595,
            0.164791,
            0.009817,
            -0.147125,
            -0.11697,
            0.187446,
            -0.137576,
            0.115643,
            0.083186,
            -0.097758,
            -0.084454,
            -0.153069,
            0.070627,
            -0.040723,
            -0.055206,
            -0.150917,
            -0.106289,
            -0.066379,
            -0.1446,
            0.017416,
            -0.091947,
            0.191241,
            -0.200788,
            -0.005276,
            0.10974,
            -0.083383,
            0.200098,
            0.109015,
            -0.081125,
            0.145615
          ],
          [
            -0.08377,
            0.175241,
            0.096925,
            -0.02047,
            -0.041932,
            -0.076303,
            -0.126799,
            -0.160189,
            -0.144329,
            0.061281,
            -0.174523,
            -0.125894,
            0.062957,
            0.083324,
            0.09824,
            -0.167561,
            0.142772,
            -0.177895,
            0.011124,
            -0.166686,
            0.120538,
            -0.124021,
            0.0924,
            0.105619,
            0.139957,
            0.116409,
            0.086925,
            -0.078938,
            0.11588,
            0.116878,
            -0.219957,
            -0.085308,
            -0.139514
          ],
          [
            -0.052392,
            0.022675,
            -0.107471,
            -0.176171,
            -0.205322,
            0.141098,
            -0.192427,
            0.053251,
            0.043069,
            -0.115418,
            -0.186363,
            0.200065,
            0.023064,
            0.161074,
            0.182242,
            0.073829,
            0.168164,
            0.183792,
            -0.124041,
            -0.129865,
            0.095375,
            -0.101619,
            0.162784,
            -0.190058,
            -0.209807,
            -0.016666,
            0.09758,
            -0.173455,
            0.013713,
            -0.14552,
            -0.036539,
            0.160736,
            0.073539
          ],
          [
            -0.024588,
            0.127005,
            -0.080536,
            -0.210283,
            0.169266,
            0.074157,
            -0.148479,
            -0.096731,
            -0.002619,
            -0.167128,
            0.104002,
            0.120956,
            0.116555,
            0.115757,
            -0.142258,
            0.210449,
            -0.068712,
            0.017921,
            -0.208065,
            0.168767,
            0.121962,
            0.1526,
            -0.176413,
            0.168662,
            0.054005,
            -0.096105,
            0.077817,
            -0.062368,
            -0.059953,
            -0.015772,
            0.005029,
            0.076644,
            0.203495
          ],
          [
            0.128968,
            0.176798,
            0.112238,
            0.205508,
            -0.170332,
            -0.139564,
            -0.089531,
            0.040972,
            0.05397,
            -0.116456,
            -0.003393,
            -0.182981,
            -0.175456,
            -0.204435,
            -0.11914,
            -0.200729,
            -0.108484,
            -0.087973,
            -0.115948,
            0.0594,
            0.002192,
            0.020712,
            0.098843,
            0.154454,
            -0.191173,
            0.175,
            -0.152387,
            -0.10326,
            -0.060941,
            0.100008,
            -0.186712,
            0.133481,
            -0.177227
          ],
          [
            -0.134656,
            -0.08345,
            0.06012,
            0.139832,
            -0.082776,
            0.172339,
            -0.144261,
            -0.153754,
            -0.212793,
            0.101418,
            0.086896,
            -0.036918,
            0.108156,
            -0.0123,
            0.198883,
            0.201873,
            0.118694,
            -0.049464,
            0.200702,
            -0.096743,
            -0.025996,
            0.012632,
            -0.134869,
            0.067895,
            -0.108581,
            -0.159928,
            -0.080839,
            0.143126,
            -0.220309,
            -0.114814,
            0.199459,
            -0.111751,
            -0.207786
          ],
          [
            0.010579,
            -0.167497,
            0.149044,
            0.089065,
            0.194279,
            0.138451,
            -0.17205,
            -0.005461,
            0.156472,
            0.155231,
            -0.025542,
            0.158879,
            0.012157,
            -0.175661,
            -0.143233,
            -0.045447,
            -0.094562,
            -0.027645,
            0.124383,
            0.130561,
            -0.157791,
            -0.172032,
            0.153678,
            0.03929,
            -0.190757,
            0.197893,
            -0.059715,
            -0.086325,
            -0.092007,
            0.065807,
            -0.113433,
            0.048738,
            -0.023534
          ],
          [
            0.045222,
            -0.116378,
            0.065018,
            -0.038417,
            0.195762,
            0.193606,
            -0.161193,
            0.014384,
            0.184905,
            0.14635,
            -0.10474,
            0.186924,
            0.194778,
            -0.115245,
            0.147935,
            0.155865,
            0.143222,
            0.038224,
            0.192951,
            0.150655,
            -0.07956,
            0.150786,
            0.132403,
            0.174329,
            0.05033,
            -0.084753,
            0.126799,
            0.119321,
            0.062301,
            0.075908,
            -0.08051,
            0.033013,
            -0.177735
          ],
          [
            -0.20135,
            -0.037217,
            0.023729,
            -0.146686,
            0.025918,
            0.09157,
            -0.022719,
            -0.199028,
            0.022335,
            -0.038855,
            0.143411,
            -0.019706,
            -0.074011,
            0.204233,
            -0.009136,
            0.116123,
            -0.027946,
            0.001019,
            -0.011001,
            0.143707,
            -0.034252,
            0.09038,
            0.012304,
            -0.140212,
            0.075944,
            0.173116,
            -0.089932,
            0.163279,
            0.199028,
            -0.140824,
            -0.087713,
            0.138272,
            0.112414
          ],
          [
            0.051367,
            0.142081,
            -0.173351,
            -0.143839,
            0.061394,
            0.053387,
            -0.122645,
            -0.065555,
            0.088895,
            0.073968,
            0.130582,
            0.044332,
            0.056874,
            -0.156183,
            -0.109188,
            0.026778,
            0.075717,
            0.181718,
            -0.1628,
            0.18619,
            -0.173211,
            -0.182713,
            0.094677,
            -0.187201,
            -0.171765,
            0.038659,
            -0.130464,
            -0.024457,
            0.155115,
            0.022615,
            -0.111538,
            0.178842,
            0.174974
          ],
          [
            -0.147796,
            0.149852,
            -0.062797,
            -0.113432,
            -0.027949,
            -0.041001,
            -0.064275,
            -0.163264,
            0.176536,
            -0.122016,
            0.089257,
            -0.138865,
            0.18056,
            -0.006185,
            0.154129,
            0.09714,
            -0.171147,
            -0.007192,
            0.025974,
            -0.103313,
            -0.116309,
            0.093705,
            -0.074514,
            -0.11796,
            -0.055602,
            0.137159,
            0.192491,
            0.176158,
            -0.203566,
            0.112096,
            -0.209835,
            -0.216222,
            -0.022644
          ],
          [
            -0.193379,
            -0.21838,
            -0.106736,
            0.01551,
            -0.094831,
            0.180893,
            -0.00432,
            -0.194012,
            0.083829,
            -0.083693,
            -0.09254,
            0.2063,
            -0.177353,
            0.045332,
            -0.029495,
            0.157631,
            0.054139,
            0.206469,
            -0.025425,
            0.104224,
            0.036784,
            0.013248,
            -0.017741,
            0.121733,
            -0.024507,
            0.206617,
            -0.213858,
            -0.058679,
            0.167022,
            3e-06,
            0.096487,
            0.069788,
            -0.098802
          ],
          [
            0.18779,
            -0.001131,
            -0.116013,
            0.086785,
            -0.07963,
            0.152138,
            0.07641,
            0.205581,
            -0.155639,
            0.176275,
            0.044437,
            -0.121446,
            0.182893,
            0.081991,
            0.000696,
            -0.04668,
            -0.014983,
            0.145832,
            0.142679,
            -0.022852,
            0.095744,
            -0.186303,
            0.132871,
            -0.206273,
            -0.06211,
            -0.095787,
            0.209137,
            0.194309,
            0.121979,
            -0.207728,
            0.2032,
            -0.199237,
            -0.022363
          ],
          [
            0.206774,
            -0.029746,
            0.209225,
            0.074883,
            0.080164,
            -0.190255,
            -0.192755,
            -0.070989,
            0.03865,
            -0.215944,
            -0.065731,
            0.195696,
            0.086823,
            0.031719,
            -0.05493,
            -0.068615,
            0.031517,
            -0.120197,
            -0.168333,
            0.152755,
            0.22082,
            -0.012131,
            -0.019738,
            0.040365,
            -0.158648,
            0.202121,
            0.081122,
            -0.174432,
            0.123042,
            -0.217237,
            -0.123375,
            0.025852,
            0.091583
          ],
          [
            0.138942,
            -0.114022,
            -0.044097,
            -0.088999,
            0.114722,
            -0.198537,
            0.13508,
            0.139432,
            0.049296,
            -0.18414,
            -0.177215,
            0.058836,
            -0.192029,
            -0.216917,
            0.034462,
            0.066802,
            -0.143799,
            0.183645,
            -0.010347,
            0.093447,
            0.183075,
            -0.010447,
            -0.058312,
            0.208766,
            -0.040238,
            -0.050052,
            0.139563,
            0.07584,
            -0.023943,
            -0.057824,
            0.073164,
            -0.090082,
            -0.213041
          ],
          [
            -0.085135,
            -0.158898,
            0.174334,
            0.198193,
            0.131321,
            -0.047541,
            0.052425,
            -0.100369,
            -0.027235,
            -0.130418,
            0.174865,
            0.051519,
            -0.080725,
            -0.070044,
            -0.14,
            0.137559,
            0.098045,
            -0.159847,
            -0.145356,
            0.124865,
            0.066452,
            -0.13894,
            0.003044,
            0.158226,
            0.113148,
            -0.046816,
            -0.085258,
            0.0028,
            -0.042266,
            0.18079,
            0.107861,
            -0.078145,
            0.033394
          ],
          [
            -0.17942,
            -0.075888,
            0.051391,
            0.096852,
            0.119183,
            0.128142,
            -0.186266,
            0.072534,
            0.096341,
            -0.201009,
            -0.151242,
            0.000345,
            0.083977,
            0.00199,
            -0.052793,
            0.10748,
            0.15614,
            0.131051,
            -0.08137,
            0.061597,
            -0.039622,
            0.186769,
            0.136313,
            0.004392,
            -0.189921,
            -0.063359,
            -0.2038,
            -0.054175,
            -0.083323,
            -0.113356,
            0.145896,
            -0.066046,
            0.05149
          ],
          [
            0.085354,
            0.196955,
            0.133068,
            0.029335,
            -0.170409,
            0.216085,
            0.167041,
            0.118152,
            0.193245,
            -0.141817,
            0.190093,
            -0.121754,
            -0.183995,
            -0.179986,
            0.204932,
            0.126091,
            -0.116367,
            -0.046206,
            0.097017,
            -0.144397,
            0.053314,
            0.145179,
            -0.076886,
            -0.182723,
            -0.178264,
            0.023382,
            0.108221,
            0.051944,
            -0.192249,
            0.063815,
            -0.027549,
            0.053271,
            0.058364
          ],
          [
            -0.019846,
            -0.070292,
            0.006886,
            0.054141,
            0.003556,
            -0.144845,
            0.187503,
            0.047117,
            0.189482,
            0.031551,
            -0.027703,
            -0.143693,
            0.03019,
            -0.069892,
            -0.109556,
            -0.033254,
            -0.172467,
            0.164727,
            -0.007799,
            0.022255,
            0.128831,
            0.073109,
            -0.144383,
            0.148424,
            -0.057237,
            -0.154376,
            0.139148,
            0.093231,
            -0.118645,
            -0.113933,
            -0.080419,
            -0.065674,
            -0.117176
          ],
          [
            -0.157415,
            0.013716,
            0.038648,
            -0.029043,
            -0.185154,
            0.046067,
            -0.183713,
            -0.006658,
            -0.015629,
            -0.039597,
            -0.141447,
            -0.125921,
            -0.06463,
            -0.197664,
            0.069381,
            0.140393,
            -0.205424,
            0.164166,
            -0.059115,
            0.203372,
            -0.170159,
            -0.021783,
            0.096274,
            0.046943,
            0.194496,
            0.027344,
            0.108032,
            -0.218334,
            -0.113815,
            -0.071167,
            -0.070093,
            0.09684,
            0.095675
          ],
          [
            0.003498,
            0.092992,
            0.001611,
            -0.103249,
            0.026982,
            -0.045894,
            -0.090563,
            -0.032584,
            -0.161545,
            0.174856,
            0.023742,
            -0.140896,
            0.046425,
            -0.187271,
            -0.081128,
            -0.169316,
            0.065907,
            0.126081,
            -0.051389,
            0.182781,
            -0.041001,
            -0.043745,
            0.135032,
            -0.169475,
            0.068953,
            0.013107,
            -0.159079,
            -0.149492,
            -0.011648,
            0.155498,
            0.097312,
            -0.046044,
            -0.17134
          ],
          [
            -0.194901,
            -0.052895,
            -0.12553,
            -0.05619,
            -0.019293,
            0.208625,
            0.13797,
            -0.05928,
            0.215007,
            0.13888,
            0.161904,
            0.117416,
            -0.191112,
            -0.038532,
            0.122646,
            0.025117,
            0.044828,
            0.125812,
            -0.022025,
            -0.201866,
            0.142245,
            0.060775,
            -0.177509,
            -0.17303,
            0.078021,
            0.118819,
            0.115135,
            0.092814,
            0.101465,
            0.104233,
            0.142294,
            -0.190949,
            -0.124886
          ],
          [
            0.182584,
            0.209502,
            0.101374,
            0.1172,
            0.173209,
            0.153547,
            0.113104,
            0.191245,
            0.152034,
            -0.068812,
            0.098863,
            -0.06297,
            0.16606,
            -0.153179,
            -0.153406,
            -0.207936,
            0.022767,
            -0.078527,
            0.128347,
            -0.138966,
            -0.046499,
            0.021584,
            -0.107094,
            0.182552,
            -0.053711,
            0.147889,
            0.120822,
            0.077409,
            -0.010701,
            -0.168696,
            -0.132402,
            0.12774,
            0.157462
          ],
          [
            -0.109842,
            0.193627,
            -0.100419,
            -0.215282,
            -0.07014,
            0.140092,
            -0.141904,
            0.136757,
            -0.167566,
            -0.098582,
            0.137724,
            -0.196275,
            0.198455,
            0.023338,
            0.196873,
            -0.081455,
            -0.120907,
            -0.186561,
            0.163498,
            -0.164305,
            0.033297,
            -0.186279,
            -0.150754,
            0.067143,
            0.034618,
            -0.024637,
            0.067451,
            0.195512,
            -0.19299,
            -0.035114,
            -0.058792,
            -0.098089,
            0.108648
          ],
          [
            0.06418,
            -0.112958,
            -0.211105,
            -0.171544,
            -0.171087,
            -0.019444,
            -0.13127,
            0.194656,
            0.17557,
            -0.047422,
            0.073826,
            0.19646,
            0.196337,
            0.075975,
            -0.025835,
            -0.063344,
            -0.047242,
            -0.047688,
            0.190669,
            0.091799,
            0.03204,
            -0.000553,
            -0.062709,
            0.136615,
            -0.216755,
            -0.085778,
            0.113751,
            0.107604,
            0.192043,
            -0.200444,
            0.168449,
            -0.034028,
            -0.204677
          ],
          [
            -0.087041,
            -0.006985,
            0.057186,
            -0.201602,
            -0.159761,
            -0.042491,
            -0.061725,
            -0.167814,
            0.153922,
            0.042683,
            0.086853,
            0.159894,
            0.102414,
            0.124273,
            -0.119107,
            -0.050152,
            0.03633,
            -0.146421,
            0.118427,
            0.131538,
            -0.141391,
            0.126473,
            -0.026504,
            0.157799,
            0.052961,
            -0.10932,
            0.143722,
            0.188855,
            0.186103,
            -0.01252,
            0.128212,
            0.074377,
            -0.102921
          ],
          [
            0.014483,
            -0.08063,
            -0.137657,
            -0.193054,
            0.117483,
            -0.093034,
            -0.000885,
            0.104477,
            0.011563,
            -0.102847,
            0.147824,
            0.184386,
            -0.16034,
            -0.129971,
            -0.18473,
            0.083473,
            -0.002496,
            0.089074,
            -0.07681,
            -0.119859,
            -0.060351,
            -0.019144,
            0.110559,
            0.034875,
            0.182521,
            -0.1312,
            0.049996,
            0.090042,
            0.117444,
            0.075881,
            0.212031,
            -0.067386,
            -0.128032
          ],
          [
            0.026043,
            -0.086912,
            0.195683,
            0.159177,
            0.056846,
            -0.185476,
            0.056948,
            0.19493,
            0.045041,
            0.047665,
            -0.11388,
            0.217261,
            0.117263,
            -0.13761,
            -0.136573,
            -0.042256,
            0.214703,
            -0.060464,
            0.086605,
            0.007996,
            -0.074174,
            -0.198947,
            0.069437,
            0.012725,
            0.053567,
            -0.196717,
            -0.183348,
            -0.081933,
            0.215913,
            -0.159527,
            0.115086,
            -0.1951,
            -0.094854
          ],
          [
            -0.140956,
            -0.204045,
            0.190943,
            0.082627,
            -0.17649,
            0.152028,
            -0.061798,
            -0.141539,
            -0.048345,
            -0.044272,
            -0.007711,
            -0.135765,
            -0.199885,
            -0.165456,
            0.013617,
            -0.017066,
            -0.151608,
            0.210693,
            -0.021837,
            0.151628,
            -0.199569,
            0.127638,
            0.048046,
            -0.025148,
            0.165762,
            -0.062968,
            -0.000502,
            -0.169261,
            0.024955,
            -0.096109,
            -0.04335,
            -0.05914,
            -0.103786
          ],
          [
            0.208526,
            0.053221,
            0.184834,
            -0.005168,
            -0.173426,
            0.140929,
            -0.01017,
            -0.181027,
            -0.186154,
            0.016765,
            -0.125963,
            -0.040341,
            -0.200495,
            0.062959,
            -0.06468,
            -0.109045,
            0.083548,
            0.066603,
            -0.100027,
            0.106205,
            -0.207061,
            -0.13096,
            -0.058602,
            -0.073345,
            0.102282,
            -0.105001,
            -0.188,
            0.127409,
            0.204678,
            -0.038049,
            0.040518,
            0.197554,
            -0.194546
          ],
          [
            0.124533,
            0.006941,
            -0.050216,
            -0.167556,
            0.092541,
            0.221436,
            0.112587,
            0.109891,
            -0.065266,
            -0.031478,
            0.205686,
            0.116325,
            -0.070255,
            0.094502,
            0.147683,
            -0.049217,
            -0.040298,
            0.144796,
            0.151794,
            0.022908,
            0.144167,
            -0.10991,
            0.152643,
            -0.029591,
            -0.166888,
            0.202993,
            -0.038173,
            0.067709,
            -0.188076,
            0.183431,
            0.075284,
            0.055799,
            -0.01238
          ],
          [
            0.183895,
            -0.199096,
            -0.214485,
            -0.009275,
            -0.189937,
            0.208554,
            -0.205464,
            0.026471,
            0.124896,
            -0.083288,
            0.190818,
            0.09018,
            0.000901,
            -0.1964,
            -0.02401,
            -0.112,
            -0.036336,
            -0.152831,
            -0.193527,
            0.044475,
            -0.092593,
            -0.139074,
            -0.007094,
            0.113625,
            0.169367,
            0.024121,
            -0.043842,
            -0.189251,
            -0.05252,
            0.207151,
            -0.186949,
            0.068361,
            0.105972
          ],
          [
            0.176181,
            -0.089574,
            0.190519,
            -0.005557,
            0.144718,
            0.029797,
            -0.100856,
            0.153289,
            -0.207818,
            0.187544,
            -0.204579,
            -0.145267,
            0.122536,
            0.191797,
            -0.102484,
            -0.180221,
            0.093391,
            0.162054,
            0.178976,
            0.009295,
            0.011467,
            -0.077196,
            0.212428,
            0.039165,
            -0.19202,
            -0.071631,
            -0.192701,
            -0.054526,
            -0.118063,
            -0.193745,
            0.024192,
            0.058741,
            0.044314
          ],
          [
            0.047997,
            0.181888,
            -0.025294,
            -0.1352,
            0.094692,
            0.121822,
            0.097901,
            -0.150015,
            -0.065969,
            0.109089,
            0.083213,
            0.141278,
            0.084857,
            -0.189161,
            0.056325,
            0.048651,
            0.087819,
            0.188291,
            -0.010927,
            -0.08158,
            -0.085626,
            0.107084,
            0.05956,
            0.174709,
            0.02003,
            0.029511,
            -0.070325,
            0.2027,
            -0.126973,
            0.11778,
            0.094659,
            -0.124698,
            0.069442
          ],
          [
            0.187998,
            -0.106432,
            0.20647,
            -0.022544,
            -0.17464,
            0.197793,
            0.176476,
            0.133317,
            -0.038193,
            -0.161053,
            0.177548,
            -0.114505,
            -0.017409,
            0.023473,
            0.095114,
            0.078214,
            0.206384,
            0.000192,
            0.064964,
            0.033796,
            0.194652,
            0.013295,
            -0.156834,
            -0.025027,
            -0.155103,
            -0.161253,
            -0.173358,
            0.005651,
            -0.157554,
            -0.060822,
            -0.148494,
            -0.029233,
            -0.186655
          ],
          [
            -0.178313,
            -0.154362,
            0.201064,
            -0.044084,
            -0.179543,
            0.149611,
            0.005256,
            -0.129325,
            0.014707,
            0.162777,
            -0.133582,
            -0.123801,
            -0.096235,
            0.087215,
            -0.14207,
            0.048696,
            -0.157356,
            0.04141,
            0.063034,
            0.075692,
            -0.109162,
            -0.132797,
            0.071545,
            0.045044,
            -0.211066,
            -0.022863,
            0.134179,
            -0.03449,
            0.057755,
            -0.042501,
            0.122176,
            0.103484,
            0.199376
          ],
          [
            -0.134226,
            -0.007952,
            0.147893,
            0.046785,
            0.205601,
            -0.11258,
            0.010243,
            -0.148606,
            0.177098,
            -0.000856,
            0.034045,
            0.01322,
            0.210492,
            0.154735,
            -0.147156,
            -0.021003,
            -0.166458,
            0.110472,
            0.176028,
            0.166784,
            -0.035126,
            0.165674,
            -0.070048,
            0.059615,
            -0.02817,
            0.049572,
            0.18895,
            -0.012772,
            0.126928,
            0.115179,
            0.030536,
            -0.166245,
            0.140309
          ],
          [
            -0.190498,
            0.215021,
            -0.084792,
            0.063747,
            -0.048639,
            -0.015929,
            -0.163767,
            -0.139318,
            -0.061125,
            0.174082,
            0.182973,
            0.034585,
            -0.034138,
            0.08721,
            -0.202094,
            -0.056946,
            0.096273,
            -0.145723,
            0.058332,
            0.060323,
            0.164937,
            0.169151,
            0.084709,
            0.039496,
            -0.088164,
            -0.010029,
            -0.189717,
            -0.124,
            0.028355,
            0.18504,
            0.196775,
            -0.090784,
            0.126555
          ],
          [
            -0.081225,
            -0.117158,
            -0.054907,
            -0.201903,
            -0.061612,
            -0.16577,
            -0.028543,
            0.12985,
            -0.071537,
            0.131435,
            -0.198691,
            0.028886,
            -0.026551,
            0.12441,
            0.096381,
            0.150982,
            0.032362,
            -0.004728,
            0.044404,
            0.107559,
            0.141716,
            0.154131,
            -0.182882,
            0.081901,
            -0.01174,
            -0.047231,
            0.190669,
            -0.058786,
            -0.14687,
            0.190525,
            -0.197734,
            -0.097698,
            0.140524
          ],
          [
            -0.053768,
            0.068942,
            0.148578,
            -0.059717,
            0.129516,
            0.190426,
            0.008236,
            0.068977,
            0.099945,
            -0.026742,
            0.088393,
            -0.170247,
            -0.139168,
            -0.063308,
            0.076573,
            0.014172,
            -0.093135,
            -0.039091,
            -0.181104,
            -0.140849,
            -0.129953,
            -0.107083,
            -0.134775,
            -0.112841,
            0.033223,
            0.217064,
            0.013437,
            -0.050498,
            0.138003,
            0.027631,
            -0.099185,
            -0.02712,
            0.182448
          ],
          [
            -0.102035,
            0.108631,
            -0.084134,
            0.05062,
            0.188286,
            0.041073,
            -0.115623,
            0.005971,
            -0.025139,
            -0.201821,
            -0.083182,
            0.157091,
            0.121658,
            0.130248,
            -0.016441,
            -0.014519,
            -0.183805,
            -0.157094,
            0.006064,
            -0.01845,
            0.124946,
            -0.024962,
            0.157609,
            -0.00028,
            -0.202316,
            0.158473,
            -0.091787,
            -0.1949,
            0.056762,
            -0.067322,
            0.04483,
            0.203326,
            0.022894
          ],
          [
            0.147742,
            -0.107248,
            -0.136688,
            0.007274,
            0.215586,
            -0.111129,
            -0.093568,
            -0.05499,
            -0.112943,
            -0.094334,
            0.188593,
            -0.107068,
            0.078638,
            -0.186988,
            0.143533,
            -0.210484,
            -0.174353,
            -0.063021,
            -0.156828,
            -0.217546,
            -0.019223,
            0.204138,
            -0.123112,
            -0.176527,
            -0.168413,
            0.047906,
            -0.186916,
            0.109539,
            -0.053128,
            0.130018,
            -0.083659,
            -0.180647,
            -0.135176
          ],
          [
            -0.055872,
            0.104308,
            0.030039,
            0.159624,
            0.115116,
            0.07991,
            -0.047052,
            0.168521,
            -0.01471,
            0.021567,
            0.20572,
            -0.157997,
            -0.114697,
            0.175662,
            0.137584,
            -0.063092,
            0.172843,
            -0.181525,
            0.105166,
            -0.104376,
            -0.00163,
            0.123034,
            0.146611,
            -0.04454,
            0.030643,
            0.024466,
            -0.005114,
            -0.030814,
            0.08043,
            -0.101534,
            0.097407,
            0.012797,
            0.045637
          ],
          [
            -0.088711,
            -0.05153,
            0.189193,
            0.074113,
            -0.0479,
            0.056456,
            -0.201276,
            -0.041678,
            -0.153372,
            0.060776,
            0.195765,
            0.162002,
            -0.185626,
            0.01477,
            0.031293,
            -0.057429,
            -0.13201,
            -0.210021,
            0.000122,
            0.092498,
            -0.163681,
            -0.209523,
            -0.100706,
            -0.005823,
            -0.067456,
            0.05155,
            0.12749,
            0.133851,
            -0.109298,
            0.033313,
            0.11111,
            -0.136412,
            0.102935
          ],
          [
            0.013554,
            0.051573,
            0.080447,
            -0.150028,
            -0.184807,
            -0.066628,
            -0.082276,
            0.131832,
            -0.14282,
            -0.098711,
            -0.005902,
            0.19757,
            0.07224,
            0.131487,
            0.153227,
            -0.048988,
            -0.075856,
            -0.159068,
            0.082802,
            0.216548,
            -0.179535,
            -0.184576,
            0.066977,
            0.063248,
            0.095781,
            -0.12395,
            0.09392,
            0.156235,
            -0.063806,
            -0.061772,
            -0.166205,
            0.199092,
            0.106143
          ],
          [
            -0.149039,
            0.063363,
            0.03592,
            -0.179395,
            0.125312,
            -0.160932,
            -0.118602,
            -0.020526,
            0.004984,
            -0.160844,
            0.150715,
            0.161144,
            0.071501,
            -0.015458,
            -0.122012,
            0.039687,
            -0.113749,
            0.205198,
            -0.197511,
            -0.173084,
            0.102591,
            -0.020165,
            0.081115,
            0.199498,
            0.070882,
            -0.050946,
            -0.199672,
            -0.122556,
            0.183244,
            0.07352,
            0.011415,
            -0.17249,
            0.014959
          ],
          [
            0.136057,
            0.021111,
            -0.168335,
            0.067001,
            0.030839,
            0.079675,
            -0.068526,
            -0.047484,
            -0.030056,
            0.140441,
            0.144304,
            0.138693,
            -0.093397,
            0.065971,
            -0.162942,
            0.018579,
            -0.063297,
            0.026268,
            -0.177878,
            -0.039344,
            0.004033,
            0.180961,
            0.010175,
            0.048097,
            0.154003,
            -0.203813,
            -0.188973,
            0.072608,
            -0.095861,
            -0.106198,
            0.001918,
            -0.036117,
            -0.191539
          ],
          [
            -0.188367,
            -0.182031,
            0.044071,
            -0.209564,
            -0.038086,
            0.003515,
            -0.169233,
            -0.021238,
            0.173423,
            0.205578,
            -0.07668,
            0.061539,
            0.189809,
            0.006524,
            -0.103947,
            0.041673,
            -0.190598,
            0.196643,
            0.087818,
            0.124015,
            -0.032337,
            0.011333,
            -0.089352,
            0.099662,
            0.077624,
            -0.00632,
            -0.039333,
            -0.017437,
            -0.018392,
            -0.132949,
            -0.055178,
            0.100335,
            -0.053332
          ],
          [
            0.207295,
            0.141706,
            0.206144,
            0.034944,
            0.172008,
            0.114249,
            0.162932,
            -0.088489,
            -0.059436,
            0.013693,
            0.13768,
            0.017391,
            -0.154588,
            0.094788,
            -0.195108,
            0.109147,
            0.003181,
            -0.026033,
            -0.17939,
            -0.122265,
            0.103841,
            0.004347,
            -0.118198,
            -0.003065,
            -0.036049,
            0.012716,
            -0.094254,
            0.169593,
            0.166576,
            0.174698,
            0.189114,
            0.082936,
            0.186697
          ],
          [
            0.123417,
            -0.07131,
            -0.149249,
            0.195875,
            -0.161703,
            0.014693,
            0.046366,
            0.112788,
            0.040747,
            -0.147093,
            -0.205023,
            -0.184014,
            -0.029443,
            -0.185187,
            0.013162,
            0.130185,
            -0.186384,
            -0.076574,
            -0.189372,
            0.019537,
            0.108793,
            -0.17612,
            -0.207138,
            0.063412,
            0.079598,
            -0.12015,
            -0.1186,
            -0.128101,
            0.086847,
            -0.165886,
            0.147222,
            -0.027788,
            0.030884
          ],
          [
            -0.124039,
            -0.129288,
            0.013531,
            0.038462,
            0.002719,
            0.15781,
            0.083165,
            0.00704,
            0.062726,
            -0.103897,
            0.036166,
            -0.045104,
            0.197186,
            -0.1868,
            0.194162,
            0.096792,
            0.131391,
            0.008182,
            -0.215534,
            0.095628,
            -0.152683,
            0.06202,
            -0.090274,
            -0.179544,
            -0.091729,
            0.204865,
            -0.088795,
            0.075257,
            -0.193851,
            0.008293,
            0.089008,
            -0.061332,
            0.011672
          ],
          [
            -0.20746,
            -0.192249,
            0.168228,
            -0.04242,
            -0.20503,
            0.028178,
            0.130491,
            -0.10978,
            -0.204165,
            -0.213165,
            -0.122089,
            -0.059973,
            -0.035864,
            -0.105948,
            -0.199621,
            0.19938,
            -0.120718,
            -0.020894,
            0.202221,
            0.055507,
            0.051657,
            0.14415,
            0.069099,
            -0.111447,
            -0.089034,
            0.182264,
            0.136579,
            0.051603,
            -0.156807,
            -0.125834,
            0.098094,
            -0.044025,
            -0.099677
          ],
          [
            0.141977,
            0.04508,
            0.109519,
            0.067691,
            -0.007636,
            0.032175,
            0.005212,
            0.17816,
            0.076405,
            0.174596,
            -0.165089,
            -0.10944,
            0.053911,
            -0.152554,
            -0.168834,
            -0.213505,
            0.014215,
            -0.175601,
            0.096572,
            -0.140398,
            -0.162718,
            -0.057122,
            0.18337,
            -0.05754,
            0.126532,
            0.097878,
            0.187628,
            -0.094112,
            -0.218232,
            -0.193096,
            -0.010884,
            -0.106746,
            -0.051644
          ],
          [
            0.084184,
            0.071675,
            0.081,
            -0.022876,
            -0.19606,
            0.157547,
            -0.183244,
            -0.054712,
            -0.143232,
            -0.166591,
            -0.184468,
            0.100603,
            -0.048028,
            0.157208,
            -0.024489,
            -0.13405,
            0.160753,
            0.064894,
            -0.058401,
            -0.057717,
            0.103389,
            0.118786,
            0.158488,
            -0.006393,
            -0.017484,
            0.020164,
            -0.035208,
            -0.152344,
            0.055766,
            -0.20531,
            0.177254,
            -0.123939,
            0.167332
          ],
          [
            0.093116,
            -0.214271,
            0.082106,
            0.014119,
            -0.17015,
            -0.047342,
            0.01025,
            0.013232,
            0.193315,
            0.028775,
            0.080824,
            -0.000418,
            -0.101687,
            -0.122186,
            0.182791,
            -0.213451,
            0.062351,
            -0.119082,
            -0.093462,
            0.116639,
            0.062197,
            0.194742,
            0.110626,
            -0.201025,
            0.123467,
            0.155321,
            0.170037,
            0.0601,
            -0.018496,
            -0.142532,
            0.083835,
            -0.012912,
            0.077395
          ],
          [
            0.120656,
            0.008521,
            -0.057975,
            0.193471,
            -0.160852,
            -0.15473,
            0.040566,
            0.176043,
            -0.146598,
            -0.092055,
            -0.064009,
            -0.175122,
            0.203406,
            0.203022,
            -0.084608,
            0.061505,
            0.017211,
            0.046114,
            -0.062547,
            0.028409,
            0.202494,
            -0.121966,
            0.125012,
            -0.149991,
            0.144399,
            -0.164384,
            -0.082045,
            0.108516,
            -0.156465,
            0.163273,
            0.093906,
            -0.096871,
            0.120987
          ],
          [
            -0.177913,
            -0.112008,
            -0.083228,
            -0.043237,
            0.070303,
            -0.19731,
            0.111693,
            0.059572,
            -0.031336,
            0.0282,
            0.102246,
            -0.126163,
            -0.044552,
            -0.074535,
            -0.002331,
            0.167397,
            -0.070398,
            0.059426,
            0.112838,
            -0.219066,
            -0.19165,
            0.004364,
            0.065455,
            -0.096785,
            0.150932,
            0.129671,
            -0.005957,
            -0.085332,
            0.198546,
            -0.08809,
            0.161529,
            -0.097284,
            -0.014076
          ],
          [
            -0.066974,
            0.056741,
            0.127775,
            0.193052,
            0.100272,
            0.104169,
            -0.035369,
            -0.171147,
            -0.184499,
            0.07115,
            -0.181665,
            0.073668,
            0.164198,
            -0.14264,
            -0.203517,
            -0.116173,
            -0.076963,
            -0.15588,
            0.063836,
            0.106813,
            -0.188662,
            -0.093394,
            -0.108139,
            0.197571,
            0.173909,
            -0.158598,
            -0.115991,
            0.056799,
            0.007249,
            0.188482,
            -0.101741,
            0.06259,
            0.061193
          ],
          [
            -0.160044,
            -0.137735,
            0.12869,
            0.178083,
            0.037564,
            0.053595,
            -0.158462,
            0.19375,
            0.210649,
            0.137986,
            -0.082869,
            -0.188131,
            -0.118322,
            0.122417,
            -0.153505,
            0.181634,
            0.068158,
            -0.191116,
            -0.133806,
            -0.199008,
            -0.097813,
            0.123308,
            0.173104,
            -0.072519,
            -0.030738,
            0.131076,
            0.064572,
            -0.050344,
            -0.107953,
            0.040526,
            0.132152,
            0.207882,
            -0.114328
          ],
          [
            0.162602,
            0.088067,
            0.155351,
            -0.12522,
            0.205181,
            0.093853,
            -0.087257,
            0.057611,
            0.004608,
            -0.121079,
            0.022657,
            0.145677,
            -0.129414,
            0.062606,
            0.204228,
            -0.195518,
            0.21797,
            0.115357,
            -0.146232,
            0.100366,
            -0.107106,
            0.028425,
            0.067911,
            -0.011394,
            -0.081387,
            -0.102364,
            0.200992,
            0.08635,
            -0.000344,
            -0.021507,
            -0.136896,
            0.045694,
            0.087556
          ],
          [
            0.059115,
            -0.042916,
            0.184062,
            -0.179829,
            -0.048029,
            -0.117886,
            -0.053112,
            -0.065403,
            0.047073,
            -0.215494,
            0.120808,
            -0.003895,
            -0.198503,
            0.004596,
            0.204051,
            0.192728,
            0.067102,
            -0.012073,
            -0.178694,
            -0.133811,
            -0.114827,
            0.052355,
            0.020968,
            -0.128414,
            0.0371,
            0.168166,
            0.050226,
            -0.135508,
            0.071581,
            0.040001,
            -0.061121,
            -0.184575,
            -0.028979
          ],
          [
            -0.068516,
            0.193116,
            0.006888,
            -0.168859,
            -0.088339,
            -0.152364,
            0.066675,
            -0.151295,
            -0.183078,
            -0.157524,
            -0.079968,
            -0.0027,
            0.070947,
            0.029502,
            -0.207981,
            -0.05837,
            0.023642,
            -0.185146,
            0.07503,
            0.203493,
            0.181132,
            0.130481,
            -0.165538,
            0.050534,
            -0.05282,
            0.193354,
            -0.058441,
            0.173984,
            -0.178149,
            0.005442,
            -0.073679,
            -0.180541,
            -0.027258
          ],
          [
            -0.182423,
            -0.15051,
            0.001755,
            -0.202277,
            0.164356,
            -0.203884,
            0.036148,
            0.132532,
            0.112358,
            0.16833,
            0.049503,
            0.037513,
            -0.051228,
            0.098746,
            0.200351,
            -0.167624,
            0.095141,
            0.218727,
            0.118994,
            -0.052305,
            -0.113735,
            -0.047913,
            -0.025048,
            -0.093254,
            0.04387,
            -0.150393,
            0.064086,
            -0.089627,
            -0.102744,
            0.117493,
            0.212253,
            0.200269,
            0.058815
          ],
          [
            -0.075715,
            -0.062656,
            0.13421,
            -0.169205,
            -0.113437,
            -0.058623,
            -0.056379,
            0.057669,
            -0.119439,
            0.162166,
            0.167081,
            0.143604,
            0.162442,
            -0.111537,
            0.065298,
            -0.000514,
            -0.015371,
            -0.189734,
            -0.102605,
            -0.07636,
            -0.103372,
            0.173925,
            -0.017739,
            -0.125528,
            0.087119,
            -0.010868,
            -0.15738,
            -0.056384,
            0.133293,
            -0.093127,
            0.159264,
            -0.092906,
            0.193647
          ],
          [
            -0.080892,
            -0.17192,
            0.059595,
            0.073584,
            0.194507,
            0.033449,
            0.204512,
            0.009064,
            0.166464,
            0.047069,
            0.055107,
            -0.069008,
            -0.016929,
            0.20889,
            0.153315,
            -0.110079,
            -0.19128,
            0.078812,
            -0.204683,
            -0.148193,
            0.117466,
            0.019975,
            0.152937,
            0.00209,
            0.076489,
            0.20184,
            0.162031,
            -0.194023,
            -0.012058,
            -0.069049,
            0.081353,
            -0.176278,
            -0.187595
          ],
          [
            0.104588,
            0.188564,
            0.0925,
            -0.179437,
            -0.204832,
            -0.040927,
            0.051016,
            0.175504,
            -0.121743,
            0.046485,
            -0.110603,
            0.07745,
            0.207593,
            0.210041,
            -0.013847,
            -0.087481,
            0.032235,
            0.208203,
            -0.179767,
            -0.083863,
            -0.023211,
            -0.152335,
            0.018876,
            -0.208557,
            -0.04938,
            -0.0051,
            0.003455,
            -0.17234,
            0.024437,
            0.175351,
            0.103724,
            0.036959,
            0.145818
          ],
          [
            0.064902,
            0.168028,
            0.122627,
            -0.073183,
            0.207095,
            -0.021889,
            -0.107896,
            0.127792,
            -0.12988,
            0.065522,
            -0.210729,
            0.022617,
            -0.130996,
            0.062688,
            0.011289,
            -0.084955,
            0.191687,
            -0.108229,
            0.204912,
            0.166673,
            0.124331,
            0.087358,
            -0.056336,
            -0.208034,
            -0.139493,
            0.152321,
            -0.025996,
            0.008535,
            -0.029666,
            0.198206,
            0.026643,
            0.059068,
            -0.095282
          ],
          [
            0.161695,
            -0.109335,
            0.163547,
            0.143544,
            -0.202218,
            0.169273,
            -0.177144,
            -0.15523,
            -0.203005,
            -0.139322,
            0.158973,
            -0.094874,
            0.16459,
            -0.124005,
            0.00079,
            0.136276,
            -0.134275,
            -0.14855,
            -0.082538,
            0.219773,
            -0.182325,
            0.131929,
            0.211394,
            -0.116921,
            -0.025505,
            0.032426,
            0.031244,
            -0.094396,
            -0.19135,
            0.163627,
            0.187569,
            0.063588,
            -0.023791
          ],
          [
            -0.006276,
            0.074796,
            -0.064623,
            -0.200029,
            0.17437,
            -0.059745,
            -0.143909,
            -0.075613,
            -0.006691,
            0.178069,
            -0.208761,
            0.168345,
            0.124957,
            0.083283,
            0.077627,
            0.022439,
            0.082909,
            -0.157574,
            0.121495,
            -0.051159,
            -0.001943,
            -0.079957,
            -0.166859,
            -0.200199,
            -0.154588,
            -0.054113,
            0.05491,
            0.150353,
            -0.138968,
            -0.040081,
            0.000374,
            -0.095256,
            -0.211238
          ],
          [
            -0.158169,
            0.134863,
            -0.057657,
            0.140711,
            0.013717,
            0.007052,
            -0.103901,
            -0.110605,
            0.02241,
            -0.037822,
            0.159881,
            0.122597,
            0.110887,
            -0.189557,
            -0.161388,
            -0.086484,
            -0.134467,
            -0.089026,
            0.047875,
            -0.028106,
            -0.20694,
            0.148229,
            -0.039053,
            -0.174422,
            0.162845,
            -0.088652,
            -0.180621,
            -0.215225,
            -0.028522,
            0.126711,
            -0.056813,
            -0.207834,
            -0.086567
          ],
          [
            0.09797,
            0.029808,
            -0.169341,
            -0.088126,
            0.218611,
            0.128332,
            -0.140437,
            0.111235,
            -0.181376,
            -0.046896,
            0.01599,
            0.062626,
            0.147437,
            -0.207827,
            -0.203564,
            0.042173,
            0.020453,
            -0.172755,
            -0.046485,
            0.101036,
            -0.183473,
            0.180151,
            -0.197071,
            -0.064531,
            -0.061672,
            -0.133918,
            0.072948,
            -0.047269,
            -0.128972,
            -0.004209,
            -0.145543,
            0.206426,
            -0.004717
          ],
          [
            0.106827,
            0.007186,
            0.02826,
            -0.170341,
            -0.189415,
            -0.050256,
            -0.140858,
            -0.206864,
            0.113338,
            0.013186,
            0.194808,
            0.147088,
            0.107128,
            -0.104815,
            -0.088286,
            0.092547,
            -0.173622,
            0.077229,
            -0.131918,
            0.161548,
            0.169983,
            -0.10152,
            0.09798,
            0.125527,
            -0.152719,
            0.118407,
            -0.10571,
            -0.07529,
            -0.188539,
            -0.006653,
            0.117865,
            -0.112699,
            -0.186136
          ],
          [
            0.032216,
            -0.105709,
            -0.195424,
            0.090457,
            0.02879,
            0.058221,
            -0.087026,
            0.03575,
            -0.014708,
            -0.20055,
            0.123587,
            0.156322,
            0.059849,
            -0.011165,
            0.09369,
            -0.093095,
            -0.026642,
            -0.185325,
            -0.160819,
            0.042419,
            -0.151014,
            0.210937,
            0.185562,
            0.030069,
            -0.209749,
            -0.044252,
            0.095836,
            -0.202143,
            0.152911,
            -0.125147,
            0.106715,
            0.077144,
            -0.005097
          ],
          [
            0.110988,
            -0.181355,
            -0.019388,
            0.049802,
            0.196638,
            0.150539,
            -0.146789,
            0.107362,
            0.00545,
            -0.14432,
            0.212536,
            0.089193,
            -0.156757,
            0.155391,
            -0.126307,
            -0.04069,
            0.108031,
            -0.000506,
            0.046807,
            -0.051879,
            0.019926,
            -0.149178,
            -0.089281,
            -0.000201,
            0.057123,
            4.2e-05,
            0.133862,
            -0.160391,
            0.201952,
            0.033672,
            -0.051262,
            0.086888,
            0.186433
          ],
          [
            -0.008623,
            0.16538,
            0.012463,
            0.15688,
            0.00401,
            0.187943,
            0.165186,
            0.156556,
            -0.031465,
            0.103965,
            -0.0593,
            0.140096,
            -0.207201,
            0.092622,
            0.069236,
            -0.168439,
            -0.07059,
            0.208749,
            0.112655,
            -0.043477,
            -0.043689,
            -0.134248,
            0.148848,
            -0.094654,
            0.053524,
            -0.009201,
            0.125137,
            -0.043026,
            0.120643,
            -0.140845,
            -0.20335,
            0.041711,
            -0.164466
          ]
        ],
        "b": [
          0.120046,
          -0.03308,
          0.061187,
          -0.097843,
          -0.140967,
          -0.140508,
          -0.190987,
          -0.130265,
          0.075369,
          0.170546,
          0.140795,
          0.084383,
          -0.173652,
          -0.096552,
          -0.081106,
          -0.102802,
          0.000868,
          0.009389,
          -0.067505,
          -0.068975,
          0.135921,
          0.119009,
          -0.077044,
          0.184179,
          0.189757,
          -0.068773,
          -0.067718,
          0.002914,
          0.190917,
          0.156543,
          -0.166987,
          -0.051992,
          0.017311,
          -0.004406,
          -0.126216,
          0.160632,
          0.081891,
          0.139979,
          0.160652,
          0.113077,
          -0.020625,
          0.053244,
          -0.140562,
          0.080881,
          -0.144185,
          0.077714,
          -0.122406,
          -0.160171,
          -0.13851,
          -0.219913,
          0.100317,
          0.106134,
          0.000782,
          -0.140174,
          -0.173855,
          -0.20145,
          -0.144863,
          0.164833,
          -0.105989,
          -0.068668,
          -0.175721,
          -0.124152,
          0.014225,
          0.052324,
          -0.104253,
          -0.196076,
          -0.041218,
          -0.108993,
          -0.126307,
          0.19546,
          0.05616,
          0.030439,
          -0.030549,
          -0.024759,
          0.012813,
          0.07905,
          0.090607,
          -0.135679,
          -0.005821,
          -0.035518,
          0.165759,
          0.062611,
          0.017849,
          -0.160416,
          0.051349,
          -0.170432,
          -0.064683,
          -0.149152,
          0.077704,
          -0.121038,
          -0.044348,
          0.176645,
          -0.133173,
          0.008949,
          -0.040607,
          -0.213795
        ]
      },
      {
        "W": [
          [
            0.125369,
            0.09081,
            0.126902,
            -0.100141,
            0.002742,
            0.168199,
            0.038679,
            -0.140486,
            0.044815,
            0.194394,
            -0.195863,
            0.044495,
            0.018639,
            0.058033,
            -0.028094,
            0.135481,
            -0.165416,
            0.084224,
            -0.077391,
            0.039718,
            0.039901,
            -0.136371,
            0.038451,
            -0.131664,
            -0.028618,
            0.077568,
            -0.162551,
            0.095785,
            0.191975,
            0.143163,
            -0.028892,
            0.077501,
            -0.147852,
            0.113154,
            -0.139104,
            0.125966,
            -0.058993,
            0.112652,
            0.037257,
            0.04813,
            0.10858,
            0.087871,
            0.202416,
            -0.018793,
            0.037093,
            -0.01691,
            -0.174589,
            0.14241,
            0.14171,
            0.159882,
            0.054273,
            -0.013404,
            0.11294,
            0.05869,
            -0.141329,
            -0.158264,
            0.123594,
            0.066297,
            0.131029,
            -0.177308,
            0.12157,
            0.121146,
            0.177247,
            0.195233,
            -0.129471,
            -0.011057,
            0.161031,
            0.043614,
            -0.052566,
            0.177272,
            0.135966,
            -0.098069,
            0.117014,
            0.161489,
            -0.103513,
            0.017922,
            -0.116357,
            0.018685,
            -0.099742,
            0.129251,
            -0.091672,
            0.194504,
            -0.047932,
            -0.133823,
            -0.137123,
            0.011045,
            0.132629,
            0.061859,
            0.046357,
            0.123639,
            0.02,
            -0.065249,
            0.184179,
            0.182682,
            -0.059174,
            -0.013814
          ],
          [
            -0.180963,
            -0.20595,
            -0.098487,
            -0.193014,
            0.081621,
            0.044649,
            -0.002448,
            0.023548,
            0.198263,
            0.063096,
            -0.122357,
            0.092094,
            -0.190591,
            -0.036867,
            -0.144293,
            0.170158,
            0.195546,
            -0.114543,
            -0.209044,
            0.122096,
            0.088385,
            -0.014787,
            0.172205,
            -0.1305,
            -0.199818,
            -0.047842,
            0.047051,
            -0.091946,
            -0.054743,
            0.019568,
            -0.037256,
            -0.001613,
            -0.178914,
            -0.163108,
            -0.085025,
            0.175276,
            0.054854,
            0.035675,
            -0.161026,
            -0.176356,
            0.175085,
            -0.042146,
            -0.010625,
            -0.001451,
            -0.069708,
            0.02739,
            0.080478,
            0.025945,
            0.188324,
            -0.104183,
            0.109318,
            0.177422,
            0.172512,
            -0.03541,
            -0.206038,
            0.045386,
            0.044128,
            -0.138341,
            0.173062,
            0.141513,
            -0.141054,
            0.175714,
            -0.170714,
            -0.024683,
            -0.131805,
            0.047846,
            0.000419,
            -0.01272,
            0.135696,
            -0.099324,
            -0.139514,
            -0.183745,
            -0.177168,
            -0.075572,
            0.174681,
            -0.08205,
            -0.121608,
            -0.046227,
            -0.124718,
            -0.108938,
            -0.181896,
            0.153692,
            -0.144362,
            0.122029,
            -0.009165,
            -0.099588,
            0.009433,
            -0.177477,
            0.120281,
            -0.062206,
            0.066234,
            0.191843,
            0.009373,
            0.014261,
            0.11804,
            0.141879
          ],
          [
            -0.004551,
            -0.109362,
            0.084544,
            -0.030423,
            0.075873,
            0.198812,
            -0.139414,
            -0.122505,
            0.115903,
            0.18286,
            0.072541,
            -0.185042,
            -0.004374,
            0.10875,
            -0.128419,
            -0.159224,
            -0.134335,
            0.056357,
            -0.08752,
            -0.064781,
            -0.049307,
            0.047225,
            0.075681,
            -0.115671,
            -0.061298,
            -0.144007,
            0.021804,
            0.160144,
            -0.059762,
            -0.121059,
            0.122033,
            0.152846,
            0.173092,
            0.202043,
            -0.16296,
            0.056223,
            -0.170344,
            -0.120001,
            -0.183654,
            0.080208,
            0.077981,
            0.007691,
            -0.133909,
            -0.092524,
            0.131746,
            0.203012,
            -0.194265,
            0.065364,
            0.199508,
            0.026468,
            0.088886,
            0.077648,
            0.185463,
            -0.130779,
            -0.190654,
            -0.016152,
            -0.180543,
            0.157649,
            -0.000369,
            -0.117316,
            0.010827,
            0.084271,
            0.022117,
            -0.140201,
            -0.010396,
            0.029339,
            0.117055,
            0.048971,
            0.028245,
            -0.046931,
            0.131646,
            -0.14438,
            0.139509,
            -0.152422,
            0.151495,
            -0.044007,
            -0.079088,
            0.190595,
            -0.09604,
            0.168468,
            -0.186784,
            -0.08789,
            0.013485,
            0.14993,
            -0.061285,
            -0.01242,
            -0.084624,
            -0.143584,
            -0.153777,
            -0.033145,
            -0.029329,
            0.074057,
            0.042698,
            0.013916,
            0.168055,
            0.187122
          ],
          [
            0.019802,
            0.061183,
            -0.101791,
            -0.155567,
            0.058856,
            -0.019782,
            0.048925,
            -0.095589,
            -0.046432,
            -0.101522,
            -0.0387,
            0.059723,
            -0.042054,
            0.014749,
            -0.038394,
            -0.026019,
            0.194231,
            0.095778,
            -0.120063,
            -0.084397,
            0.052002,
            0.027906,
            -0.012552,
            -0.051557,
            -0.137156,
            -0.144556,
            -0.041473,
            -0.189641,
            -0.180986,
            0.089874,
            -0.129246,
            0.15134,
            -0.130862,
            -0.053452,
            0.162176,
            0.093103,
            0.157,
            0.063152,
            -0.187969,
            0.171499,
            -0.05787,
            -0.206572,
            0.155696,
            -0.079867,
            -0.108855,
            -0.107247,
            -0.036243,
            -0.022455,
            -0.182126,
            -0.127042,
            0.130892,
            -0.086817,
            -0.138256,
            0.193218,
            0.031856,
            0.108803,
            0.044591,
            0.041783,
            0.179496,
            0.152814,
            -0.009386,
            -0.144567,
            0.094122,
            -0.049566,
            -0.091925,
            0.094774,
            0.020078,
            -0.205607,
            0.158077,
            0.022797,
            0.073628,
            0.142583,
            -0.034264,
            0.145816,
            0.081954,
            -0.133986,
            -0.138988,
            0.052496,
            0.119436,
            0.162141,
            -0.108515,
            0.128389,
            -0.160039,
            0.164605,
            0.054753,
            -0.017324,
            -0.18455,
            0.054606,
            -0.047636,
            -0.047606,
            0.089335,
            -0.191392,
            -0.012367,
            -0.149996,
            0.002451,
            -0.072274
          ],
          [
            0.05835,
            -0.000873,
            0.185171,
            -0.189072,
            -0.090612,
            0.147715,
            -0.086615,
            -0.108867,
            0.13923,
            0.051472,
            -0.034316,
            0.019008,
            -0.132427,
            0.077758,
            0.110808,
            -0.060514,
            0.200593,
            -0.109109,
            0.071959,
            -0.033832,
            -0.007873,
            -0.034334,
            0.132214,
            -0.177503,
            -0.158118,
            0.189352,
            0.013324,
            -0.103863,
            0.000118,
            0.010255,
            0.136603,
            -0.194228,
            0.136778,
            0.117949,
            -0.195953,
            0.130492,
            -0.149508,
            0.055954,
            0.142337,
            0.036814,
            0.184868,
            0.084151,
            -0.012407,
            -0.162714,
            -0.1068,
            0.079725,
            -0.064649,
            0.017625,
            0.136425,
            -0.15675,
            -0.175227,
            -0.121364,
            0.158855,
            0.136609,
            -0.013393,
            -0.108683,
            -0.072198,
            -0.134262,
            0.018748,
            -0.05474,
            0.056978,
            -0.098923,
            0.110759,
            0.189554,
            -0.097298,
            -0.084047,
            0.027086,
            -0.118757,
            0.17971,
            0.16172,
            0.028743,
            0.060176,
            0.045036,
            0.061495,
            -0.002816,
            0.036919,
            -0.043372,
            -0.076585,
            -0.084065,
            0.186816,
            0.161355,
            0.013205,
            0.182544,
            -0.090872,
            -0.14835,
            0.090211,
            -0.131852,
            -0.060222,
            -0.060713,
            -0.120384,
            0.014695,
            -0.064838,
            -0.160144,
            -0.197889,
            -0.012366,
            0.03064
          ],
          [
            0.071399,
            -0.207384,
            0.049843,
            -0.062194,
            -0.14626,
            -0.184519,
            -0.010349,
            -0.135333,
            -0.140022,
            0.067065,
            0.151976,
            -0.167436,
            0.058247,
            -0.033417,
            0.156582,
            0.145662,
            0.114216,
            -0.185416,
            0.048719,
            0.064588,
            -0.132348,
            -0.071976,
            0.178005,
            -0.047237,
            0.180846,
            0.149135,
            0.157397,
            0.156522,
            -0.16492,
            0.037212,
            0.055127,
            0.108002,
            0.012803,
            -0.069359,
            -0.012395,
            0.135158,
            -0.076175,
            0.036483,
            -0.161724,
            -0.158286,
            -0.097401,
            0.060055,
            0.079729,
            -0.086114,
            -0.003789,
            0.083041,
            0.074705,
            -0.195959,
            0.054121,
            0.162968,
            0.095306,
            -0.085816,
            0.091129,
            -0.094484,
            0.0021,
            -0.142407,
            -0.058986,
            0.183333,
            -0.048957,
            0.085384,
            0.176373,
            0.134241,
            0.037794,
            -0.079186,
            0.053577,
            0.021078,
            -0.162963,
            -0.009312,
            -0.205513,
            0.174563,
            0.075621,
            -0.106468,
            -0.172421,
            -0.142687,
            0.003043,
            0.181369,
            0.161999,
            -0.157845,
            -0.131711,
            0.002409,
            -0.039992,
            -0.021488,
            -0.134732,
            0.159416,
            -0.034045,
            0.174202,
            0.155453,
            0.079245,
            0.022658,
            -0.184927,
            -0.179506,
            0.044529,
            0.103841,
            0.121055,
            -0.19736,
            -0.170765
          ],
          [
            -0.105475,
            0.119273,
            -0.077022,
            0.110098,
            0.054728,
            -0.072421,
            -0.171961,
            0.127495,
            -0.197061,
            -0.079937,
            0.15594,
            -0.138643,
            0.187147,
            0.098729,
            -0.175145,
            -0.175359,
            0.059655,
            -0.155981,
            0.032693,
            0.068829,
            0.076856,
            -0.157878,
            -0.200739,
            0.002582,
            0.035527,
            0.161034,
            -0.128924,
            -0.104024,
            -0.107563,
            -0.020086,
            -0.038349,
            -0.021474,
            -0.172526,
            0.048406,
            -0.151125,
            -0.047875,
            0.123296,
            -0.007594,
            -0.19107,
            0.027652,
            -0.073671,
            -0.193637,
            0.192071,
            0.184915,
            -0.103152,
            0.039531,
            0.103922,
            0.051463,
            0.054934,
            0.130478,
            0.137862,
            -0.168272,
            -0.106387,
            -0.175411,
            -0.206419,
            -0.042576,
            0.104823,
            0.003291,
            0.136791,
            -0.069692,
            0.026944,
            -0.119589,
            -0.141533,
            0.144927,
            0.056147,
            -0.173107,
            -0.156009,
            0.178472,
            -0.167943,
            0.092229,
            -0.041374,
            0.017266,
            -0.067136,
            -0.033935,
            0.190991,
            -0.001951,
            0.041678,
            0.134271,
            -0.003729,
            0.066917,
            0.084823,
            -0.080983,
            -0.099236,
            -0.078472,
            -0.096771,
            -0.07477,
            0.070545,
            0.018659,
            0.142991,
            0.03389,
            -0.131043,
            -0.186494,
            0.095491,
            -0.16457,
            0.149192,
            -0.126353
          ],
          [
            -0.194158,
            0.105498,
            -0.088228,
            0.021267,
            0.034733,
            -0.170875,
            -0.010859,
            -0.08162,
            -0.11478,
            0.136231,
            0.161157,
            0.021995,
            0.019648,
            0.126583,
            -0.037825,
            -0.112055,
            0.025988,
            0.037459,
            -0.1916,
            -0.069571,
            0.01733,
            -0.03838,
            0.191096,
            -0.001639,
            0.08748,
            0.194775,
            -0.18902,
            -0.108167,
            -0.068876,
            0.128313,
            -0.011484,
            0.193676,
            0.180045,
            -0.119854,
            -0.072655,
            -0.177305,
            0.033923,
            0.006182,
            -0.019612,
            0.102861,
            0.076118,
            -0.047953,
            -0.177749,
            0.175661,
            -0.194522,
            -0.162074,
            -0.074118,
            -0.164984,
            -0.14584,
            0.100285,
            -0.081445,
            -0.139506,
            -0.170766,
            -0.175116,
            -0.025788,
            0.168263,
            0.121058,
            -0.168474,
            0.001014,
            0.159825,
            0.01078,
            -0.168628,
            0.115543,
            0.149758,
            0.126602,
            -0.029455,
            0.006528,
            -0.041693,
            -0.096044,
            -0.162873,
            -0.141739,
            0.00576,
            -0.161615,
            -0.080987,
            0.184258,
            -0.164386,
            -0.030155,
            -0.050427,
            0.143389,
            0.107827,
            0.164875,
            0.027273,
            -0.032316,
            0.015661,
            0.152412,
            -0.181005,
            -0.09623,
            -0.093733,
            -0.166254,
            0.193829,
            0.132921,
            -0.188481,
            -0.071014,
            0.048809,
            -0.19292,
            -0.029537
          ],
          [
            0.096607,
            0.024622,
            -0.120283,
            -0.071167,
            -0.128348,
            0.188264,
            -0.073607,
            0.173376,
            -0.059771,
            0.183706,
            -0.072669,
            -0.077648,
            0.082036,
            -0.138842,
            -0.158652,
            0.107929,
            0.143837,
            0.136938,
            0.090049,
            -0.149262,
            -0.052744,
            -0.135971,
            -0.163348,
            -0.042573,
            -0.070097,
            -0.113495,
            0.153061,
            -0.141959,
            0.131429,
            0.139968,
            -0.097163,
            -0.001919,
            -0.098141,
            -0.138995,
            0.178793,
            -0.036174,
            -0.038358,
            -0.062258,
            0.146438,
            -0.033448,
            0.106021,
            0.1899,
            -0.159408,
            -0.063536,
            0.064573,
            0.077666,
            0.132538,
            -0.028289,
            0.066794,
            -0.182386,
            0.061664,
            -0.155862,
            -0.095114,
            -0.15266,
            0.094232,
            0.087415,
            -0.035718,
            0.056877,
            -0.009288,
            -0.147553,
            -0.177655,
            0.088338,
            0.091625,
            -0.056173,
            -0.02783,
            0.107477,
            -0.089228,
            -0.028027,
            0.074126,
            0.07421,
            0.066321,
            0.067651,
            0.193793,
            0.09128,
            -0.111021,
            0.052048,
            0.182573,
            0.065695,
            -0.104107,
            -0.149746,
            -0.032338,
            0.095578,
            -0.041995,
            -0.178046,
            -0.182828,
            0.001714,
            -0.178032,
            0.067323,
            -0.169295,
            -0.131368,
            0.086526,
            -0.020789,
            -0.073797,
            0.17455,
            0.175938,
            -0.114882
          ],
